<?xml version="1.0"?>
<opencv_storage>
<cascade>
  <size>
    150 50</size>
  <stages>
    <_>
      <trees>
        <_>
          <_>
            <feature>
              <rects>
                <_>
                  71 8 10 24 -1.</_>
                <_>
                  71 20 10 12 2.</_></rects>
              <tilted>0</tilted></feature>
            <threshold>6.9869944127276540e-04</threshold>
            <left_val>-7.8378378378378377e-01</left_val>
            <right_val>8.1609195402298684e-01</right_val></_></_>
        <_>
          <_>
            <feature>
              <rects>
                <_>
                  64 21 16 5 -1.</_>
                <_>
                  68 21 8 5 2.</_></rects>
              <tilted>0</tilted></feature>
            <threshold>-9.1891246847808361e-04</threshold>
            <left_val>9.0533018096135853e-01</left_val>
            <right_val>-5.7166053986239418e-01</right_val></_></_></trees>
      <stage_threshold>1.2154639512300491e-01</stage_threshold>
      <parent>-1</parent>
      <next>-1</next></_>
    <_>
      <trees>
        <_>
          <_>
            <feature>
              <rects>
                <_>
                  145 5 2 2 -1.</_>
                <_>
                  146 5 1 2 2.</_></rects>
              <tilted>0</tilted></feature>
            <threshold>-8.9727211616263958e-07</threshold>
            <left_val>8.5774058577405721e-01</left_val>
            <right_val>-5.2083333333333393e-01</right_val></_></_>
        <_>
          <_>
            <feature>
              <rects>
                <_>
                  71 16 9 7 -1.</_>
                <_>
                  74 19 3 7 3.</_></rects>
              <tilted>1</tilted></feature>
            <threshold>-4.0184347890317440e-03</threshold>
            <left_val>8.9855645729976630e-01</left_val>
            <right_val>-5.5725579342843201e-01</right_val></_></_></trees>
      <stage_threshold>3.0048480629920959e-01</stage_threshold>
      <parent>0</parent>
      <next>-1</next></_>
    <_>
      <trees>
        <_>
          <_>
            <feature>
              <rects>
                <_>
                  74 26 8 2 -1.</_>
                <_>
                  78 26 4 2 2.</_></rects>
              <tilted>0</tilted></feature>
            <threshold>-2.7019856497645378e-04</threshold>
            <left_val>9.0867579908675700e-01</left_val>
            <right_val>-3.7931034482758713e-01</right_val></_></_>
        <_>
          <_>
            <feature>
              <rects>
                <_>
                  60 11 20 24 -1.</_>
                <_>
                  60 17 20 12 2.</_></rects>
              <tilted>0</tilted></feature>
            <threshold>3.0077691189944744e-03</threshold>
            <left_val>-5.4827306048226543e-01</left_val>
            <right_val>7.7703926000175894e-01</right_val></_></_>
        <_>
          <_>
            <feature>
              <rects>
                <_>
                  1 26 4 13 -1.</_>
                <_>
                  3 26 2 13 2.</_></rects>
              <tilted>0</tilted></feature>
            <threshold>9.2339888624337618e-07</threshold>
            <left_val>-7.9720398152777749e-01</left_val>
            <right_val>6.0972416919236283e-01</right_val></_></_></trees>
      <stage_threshold>-3.1785923242568970e-01</stage_threshold>
      <parent>1</parent>
      <next>-1</next></_>
    <_>
      <trees>
        <_>
          <_>
            <feature>
              <rects>
                <_>
                  76 21 6 4 -1.</_>
                <_>
                  78 23 2 4 3.</_></rects>
              <tilted>1</tilted></feature>
            <threshold>1.8729018047451973e-03</threshold>
            <left_val>-2.4444444444444530e-01</left_val>
            <right_val>9.3999999999999928e-01</right_val></_></_>
        <_>
          <_>
            <feature>
              <rects>
                <_>
                  10 6 70 22 -1.</_>
                <_>
                  10 6 35 11 2.</_>
                <_>
                  45 17 35 11 2.</_></rects>
              <tilted>0</tilted></feature>
            <threshold>1.3177087530493736e-02</threshold>
            <left_val>-5.4503096602597867e-01</left_val>
            <right_val>7.5959646978401851e-01</right_val></_></_>
        <_>
          <_>
            <feature>
              <rects>
                <_>
                  53 0 28 21 -1.</_>
                <_>
                  53 7 28 7 3.</_></rects>
              <tilted>0</tilted></feature>
            <threshold>-1.1531429365277290e-02</threshold>
            <left_val>7.9574392310195929e-01</left_val>
            <right_val>-4.5708191674011417e-01</right_val></_></_></trees>
      <stage_threshold>-6.2112882733345032e-02</stage_threshold>
      <parent>2</parent>
      <next>-1</next></_>
    <_>
      <trees>
        <_>
          <_>
            <feature>
              <rects>
                <_>
                  74 28 12 1 -1.</_>
                <_>
                  78 28 4 1 3.</_></rects>
              <tilted>0</tilted></feature>
            <threshold>-2.0368091645650566e-04</threshold>
            <left_val>9.2964824120602940e-01</left_val>
            <right_val>-2.2058823529411842e-01</right_val></_></_>
        <_>
          <_>
            <feature>
              <rects>
                <_>
                  77 12 11 20 -1.</_>
                <_>
                  77 12 11 10 2.</_></rects>
              <tilted>1</tilted></feature>
            <threshold>-8.7248943746089935e-03</threshold>
            <left_val>-1.</left_val>
            <right_val>5.5813671849691171e-01</right_val></_></_>
        <_>
          <_>
            <feature>
              <rects>
                <_>
                  52 24 34 1 -1.</_>
                <_>
                  69 24 17 1 2.</_></rects>
              <tilted>0</tilted></feature>
            <threshold>5.4877472575753927e-04</threshold>
            <left_val>4.8419795539922589e-01</left_val>
            <right_val>-8.4609963434987179e-01</right_val></_></_></trees>
      <stage_threshold>6.4168530702590942e-01</stage_threshold>
      <parent>3</parent>
      <next>-1</next></_>
    <_>
      <trees>
        <_>
          <_>
            <feature>
              <rects>
                <_>
                  73 7 28 12 -1.</_>
                <_>
                  73 7 14 12 2.</_></rects>
              <tilted>1</tilted></feature>
            <threshold>2.7517784386873245e-02</threshold>
            <left_val>7.7536231884057782e-01</left_val>
            <right_val>-9.9999999999999989e-01</right_val></_></_></trees>
      <stage_threshold>7.7536231279373169e-01</stage_threshold>
      <parent>4</parent>
      <next>-1</next></_>
    <_>
      <trees>
        <_>
          <_>
            <feature>
              <rects>
                <_>
                  89 13 7 18 -1.</_>
                <_>
                  89 13 7 9 2.</_></rects>
              <tilted>1</tilted></feature>
            <threshold>-1.0605296120047569e-03</threshold>
            <left_val>8.6178861788617755e-01</left_val>
            <right_val>-6.4044943820224742e-01</right_val></_></_>
        <_>
          <_>
            <feature>
              <rects>
                <_>
                  79 23 4 4 -1.</_>
                <_>
                  79 23 2 4 2.</_></rects>
              <tilted>1</tilted></feature>
            <threshold>1.0772818932309747e-03</threshold>
            <left_val>-5.1934479068765838e-01</left_val>
            <right_val>9.5011467301269670e-01</right_val></_></_></trees>
      <stage_threshold>3.0966523289680481e-01</stage_threshold>
      <parent>5</parent>
      <next>-1</next></_>
    <_>
      <trees>
        <_>
          <_>
            <feature>
              <rects>
                <_>
                  126 20 24 12 -1.</_>
                <_>
                  138 20 12 12 2.</_></rects>
              <tilted>0</tilted></feature>
            <threshold>-3.7398122367449105e-04</threshold>
            <left_val>8.9954337899543280e-01</left_val>
            <right_val>-3.6206896551724227e-01</right_val></_></_>
        <_>
          <_>
            <feature>
              <rects>
                <_>
                  74 27 12 2 -1.</_>
                <_>
                  78 27 4 2 3.</_></rects>
              <tilted>0</tilted></feature>
            <threshold>-5.1586236804723740e-04</threshold>
            <left_val>8.6704502641076431e-01</left_val>
            <right_val>-4.2247620447229578e-01</right_val></_></_>
        <_>
          <_>
            <feature>
              <rects>
                <_>
                  143 39 2 8 -1.</_>
                <_>
                  144 39 1 8 2.</_></rects>
              <tilted>0</tilted></feature>
            <threshold>-8.9447138407194871e-07</threshold>
            <left_val>7.4405471031064585e-01</left_val>
            <right_val>-5.9835188581209597e-01</right_val></_></_></trees>
      <stage_threshold>-1.2128470838069916e-01</stage_threshold>
      <parent>6</parent>
      <next>-1</next></_>
    <_>
      <trees>
        <_>
          <_>
            <feature>
              <rects>
                <_>
                  84 19 26 26 -1.</_>
                <_>
                  97 19 13 26 2.</_></rects>
              <tilted>0</tilted></feature>
            <threshold>-1.7610598355531693e-02</threshold>
            <left_val>-8.5964912280701744e-01</left_val>
            <right_val>7.3381294964028543e-01</right_val></_></_>
        <_>
          <_>
            <feature>
              <rects>
                <_>
                  79 29 6 4 -1.</_>
                <_>
                  79 29 3 2 2.</_>
                <_>
                  82 31 3 2 2.</_></rects>
              <tilted>0</tilted></feature>
            <threshold>-1.1843281390611082e-04</threshold>
            <left_val>9.8118377029862247e-01</left_val>
            <right_val>-4.6525938693798613e-01</right_val></_></_>
        <_>
          <_>
            <feature>
              <rects>
                <_>
                  2 24 1 18 -1.</_>
                <_>
                  2 33 1 9 2.</_></rects>
              <tilted>0</tilted></feature>
            <threshold>4.2096689867321402e-05</threshold>
            <left_val>6.4257649404492323e-01</left_val>
            <right_val>-7.2539363729438122e-01</right_val></_></_>
        <_>
          <_>
            <feature>
              <rects>
                <_>
                  67 20 12 6 -1.</_>
                <_>
                  71 22 4 2 9.</_></rects>
              <tilted>0</tilted></feature>
            <threshold>-2.7745352126657963e-03</threshold>
            <left_val>8.7107163379879626e-01</left_val>
            <right_val>-5.6590444160269682e-01</right_val></_></_></trees>
      <stage_threshold>1.9820669293403625e-01</stage_threshold>
      <parent>7</parent>
      <next>-1</next></_>
    <_>
      <trees>
        <_>
          <_>
            <feature>
              <rects>
                <_>
                  29 18 72 18 -1.</_>
                <_>
                  53 18 24 18 3.</_></rects>
              <tilted>0</tilted></feature>
            <threshold>-1.3212352991104126e-02</threshold>
            <left_val>-9.3442622950819665e-01</left_val>
            <right_val>7.7372262773722433e-01</right_val></_></_></trees>
      <stage_threshold>7.7372264862060547e-01</stage_threshold>
      <parent>8</parent>
      <next>-1</next></_>
    <_>
      <trees>
        <_>
          <_>
            <feature>
              <rects>
                <_>
                  73 2 24 32 -1.</_>
                <_>
                  73 2 12 16 2.</_>
                <_>
                  85 18 12 16 2.</_></rects>
              <tilted>0</tilted></feature>
            <threshold>1.0073269368149340e-04</threshold>
            <left_val>9.3360995850622330e-01</left_val>
            <right_val>-7.4468085106383042e-01</right_val></_></_>
        <_>
          <_>
            <feature>
              <rects>
                <_>
                  111 36 38 11 -1.</_>
                <_>
                  130 36 19 11 2.</_></rects>
              <tilted>0</tilted></feature>
            <threshold>5.2523417398333549e-03</threshold>
            <left_val>7.8995738236147528e-01</left_val>
            <right_val>-8.1444082734610057e-01</right_val></_></_></trees>
      <stage_threshold>4.5276530086994171e-02</stage_threshold>
      <parent>9</parent>
      <next>-1</next></_>
    <_>
      <trees>
        <_>
          <_>
            <feature>
              <rects>
                <_>
                  140 0 9 9 -1.</_>
                <_>
                  143 3 3 3 9.</_></rects>
              <tilted>0</tilted></feature>
            <threshold>2.0553311333060265e-03</threshold>
            <left_val>8.6153846153846025e-01</left_val>
            <right_val>-9.2000000000000004e-01</right_val></_></_>
        <_>
          <_>
            <feature>
              <rects>
                <_>
                  63 23 10 3 -1.</_>
                <_>
                  68 23 5 3 2.</_></rects>
              <tilted>0</tilted></feature>
            <threshold>-4.5412319013848901e-04</threshold>
            <left_val>9.0625914572363730e-01</left_val>
            <right_val>-5.2021092343301967e-01</right_val></_></_></trees>
      <stage_threshold>-1.3740854337811470e-02</stage_threshold>
      <parent>10</parent>
      <next>-1</next></_>
    <_>
      <trees>
        <_>
          <_>
            <feature>
              <rects>
                <_>
                  0 0 121 48 -1.</_>
                <_>
                  0 24 121 24 2.</_></rects>
              <tilted>0</tilted></feature>
            <threshold>1.5654784440994263e-01</threshold>
            <left_val>8.2879377431906465e-01</left_val>
            <right_val>-7.4358974358974350e-01</right_val></_></_>
        <_>
          <_>
            <feature>
              <rects>
                <_>
                  54 9 32 18 -1.</_>
                <_>
                  62 9 16 18 2.</_></rects>
              <tilted>0</tilted></feature>
            <threshold>-1.3983368407934904e-03</threshold>
            <left_val>9.8028219084827339e-01</left_val>
            <right_val>-4.8795029456991962e-01</right_val></_></_>
        <_>
          <_>
            <feature>
              <rects>
                <_>
                  50 1 69 2 -1.</_>
                <_>
                  50 2 69 1 2.</_></rects>
              <tilted>0</tilted></feature>
            <threshold>-1.0844494681805372e-04</threshold>
            <left_val>9.4064146331434806e-01</left_val>
            <right_val>-5.0670781021664335e-01</right_val></_></_></trees>
      <stage_threshold>-2.9089856147766113e-01</stage_threshold>
      <parent>11</parent>
      <next>-1</next></_>
    <_>
      <trees>
        <_>
          <_>
            <feature>
              <rects>
                <_>
                  79 15 11 15 -1.</_>
                <_>
                  74 20 11 5 3.</_></rects>
              <tilted>1</tilted></feature>
            <threshold>1.9197329878807068e-02</threshold>
            <left_val>8.6311787072243218e-01</left_val>
            <right_val>-1.</right_val></_></_></trees>
      <stage_threshold>8.6311787366867065e-01</stage_threshold>
      <parent>12</parent>
      <next>-1</next></_>
    <_>
      <trees>
        <_>
          <_>
            <feature>
              <rects>
                <_>
                  24 28 38 16 -1.</_>
                <_>
                  24 28 19 8 2.</_>
                <_>
                  43 36 19 8 2.</_></rects>
              <tilted>0</tilted></feature>
            <threshold>1.7077360302209854e-02</threshold>
            <left_val>9.3675889328063178e-01</left_val>
            <right_val>-1.</right_val></_></_></trees>
      <stage_threshold>9.3675887584686279e-01</stage_threshold>
      <parent>13</parent>
      <next>-1</next></_>
    <_>
      <trees>
        <_>
          <_>
            <feature>
              <rects>
                <_>
                  62 6 30 5 -1.</_>
                <_>
                  62 6 15 5 2.</_></rects>
              <tilted>1</tilted></feature>
            <threshold>-1.0541668161749840e-03</threshold>
            <left_val>9.0794979079497817e-01</left_val>
            <right_val>-6.4583333333333404e-01</right_val></_></_>
        <_>
          <_>
            <feature>
              <rects>
                <_>
                  2 0 2 10 -1.</_>
                <_>
                  2 5 2 5 2.</_></rects>
              <tilted>0</tilted></feature>
            <threshold>1.3859424507245421e-04</threshold>
            <left_val>7.9554319892828396e-01</left_val>
            <right_val>-8.0565178791190162e-01</right_val></_></_></trees>
      <stage_threshold>1.0229800641536713e-01</stage_threshold>
      <parent>14</parent>
      <next>-1</next></_>
    <_>
      <trees>
        <_>
          <_>
            <feature>
              <rects>
                <_>
                  0 6 23 8 -1.</_>
                <_>
                  0 10 23 4 2.</_></rects>
              <tilted>0</tilted></feature>
            <threshold>-6.6711474210023880e-03</threshold>
            <left_val>-9.3650793650793651e-01</left_val>
            <right_val>7.8676470588235103e-01</right_val></_></_></trees>
      <stage_threshold>7.8676468133926392e-01</stage_threshold>
      <parent>15</parent>
      <next>-1</next></_>
    <_>
      <trees>
        <_>
          <_>
            <feature>
              <rects>
                <_>
                  0 0 54 21 -1.</_>
                <_>
                  0 7 54 7 3.</_></rects>
              <tilted>0</tilted></feature>
            <threshold>4.5737206935882568e-02</threshold>
            <left_val>8.9189189189189089e-01</left_val>
            <right_val>-1.</right_val></_></_></trees>
      <stage_threshold>8.9189189672470093e-01</stage_threshold>
      <parent>16</parent>
      <next>-1</next></_>
    <_>
      <trees>
        <_>
          <_>
            <feature>
              <rects>
                <_>
                  72 22 6 5 -1.</_>
                <_>
                  75 22 3 5 2.</_></rects>
              <tilted>0</tilted></feature>
            <threshold>1.5521343448199332e-04</threshold>
            <left_val>-4.7540983606557513e-01</left_val>
            <right_val>1.</right_val></_></_>
        <_>
          <_>
            <feature>
              <rects>
                <_>
                  55 21 54 18 -1.</_>
                <_>
                  73 27 18 6 9.</_></rects>
              <tilted>0</tilted></feature>
            <threshold>6.6156610846519470e-03</threshold>
            <left_val>-5.7437580390784249e-01</left_val>
            <right_val>9.3755026710309786e-01</right_val></_></_></trees>
      <stage_threshold>4.2562419176101685e-01</stage_threshold>
      <parent>17</parent>
      <next>-1</next></_>
    <_>
      <trees>
        <_>
          <_>
            <feature>
              <rects>
                <_>
                  74 5 21 20 -1.</_>
                <_>
                  69 10 21 10 2.</_></rects>
              <tilted>1</tilted></feature>
            <threshold>3.0484665185213089e-02</threshold>
            <left_val>9.3650793650793585e-01</left_val>
            <right_val>-9.7590361445783136e-01</right_val></_></_></trees>
      <stage_threshold>9.3650794029235840e-01</stage_threshold>
      <parent>18</parent>
      <next>-1</next></_></stages></cascade>
</opencv_storage>
